       33.692525      -118.50230     -0.59894800       0
       33.676234      -118.50683     -0.58500814       1
       33.658229      -118.51184     -0.59137201       2
       33.647084      -118.51494     -0.58010530       3
       33.631652      -118.51924     -0.58595037       4
       33.609359      -118.52544     -0.57757568       5
       33.587066      -118.53163     -0.58585024       6
       33.564771      -118.53782     -0.55978441       7
       33.542473      -118.54400     -0.55926704       8
       33.527037      -118.54829     -0.59275579       9
       33.288630      -118.61428     -0.51937151      10
       33.276621      -118.61760     -0.51068211      11
       33.254325      -118.62375     -0.50896978      12
       33.232026      -118.62989     -0.52694893      13
       33.202864      -118.63793     -0.50845337      14
       33.214012      -118.63486     -0.51671028      15
       33.187427      -118.64219     -0.49098492      16
       33.165121      -118.64834     -0.48985004      17
       33.143688      -118.65425     -0.45580435      18
       33.125679      -118.65921     -0.49637127      19
       32.852933      -118.73417     -0.54055071      20
       32.834063      -118.73934     -0.55657721      21
       32.811760      -118.74545     -0.56936455      22
       32.789458      -118.75156     -0.56782818      23
       32.774879      -118.75556     -0.55592299      24
       32.763729      -118.75862     -0.55602026      25
       32.745717      -118.76355     -0.56628847      26
       32.723415      -118.76966     -0.56162691      27
       32.701113      -118.77576     -0.54317808      28
       32.679666      -118.78162     -0.52877712      29
       32.657359      -118.78771     -0.55597639      30
       32.635049      -118.79381     -0.54163647      31
       32.613601      -118.79966     -0.54163647      32
       32.591295      -118.80575     -0.55704880      33
       32.568988      -118.81183     -0.55151701      34
       32.546680      -118.81791     -0.54327106      35
       32.525232      -118.82376     -0.55715609      36
       32.502923      -118.82984     -0.54228544      37
       32.480618      -118.83592     -0.55410767      38
       32.459171      -118.84176     -0.55088568      39
       32.436865      -118.84783     -0.52105713      40
       32.414553      -118.85390     -0.52487278      41
       32.393104      -118.85973     -0.54677439      42
       32.370794      -118.86580     -0.53256989      43
       32.339048      -118.87442     -0.53158188      44
       32.350201      -118.87140     -0.54382324      45
       32.327035      -118.87769     -0.54388571      46
       32.304724      -118.88374     -0.54954147      47
       32.282417      -118.88979     -0.53206015      48
       32.260966      -118.89561     -0.54026842      49
       32.238657      -118.90167     -0.57201195      50
       32.216352      -118.90773     -0.55097055      51
       32.194900      -118.91355     -0.54476833      52
       32.172591      -118.91960     -0.51866198      53
       32.150278      -118.92564     -0.54836321      54
       32.127964      -118.93168     -0.50780296      55
       32.106511      -118.93748     -0.54630947      56
       32.084199      -118.94352     -0.51700401      57
       32.061888      -118.94956     -0.54378557      58
       32.040437      -118.95536     -0.51243305      59
       32.018123      -118.96139     -0.54532719      60
       31.995811      -118.96742     -0.50647449      61
       31.974360      -118.97321     -0.51421499      62
       31.952045      -118.97923     -0.53725147      63
       31.929734      -118.98525     -0.50087309      64
       31.905705      -118.99174     -0.49889278      65
       31.916003      -118.98896     -0.50809383      66
       31.885968      -118.99707     -0.52653933      67
       31.863658      -119.00310     -0.49786997      68
       31.842203      -119.00888     -0.48807764      69
       31.819887      -119.01489     -0.52495050      70
       31.797572      -119.02089     -0.53465796      71
       31.776112      -119.02667     -0.48100853      72
       31.753798      -119.03268     -0.49639845      73
       31.731484      -119.03868     -0.51082659      74
       31.710026      -119.04446     -0.50831699      75
       31.687708      -119.05045     -0.51449108      76
       31.665388      -119.05645     -0.52214909      77
       31.643927      -119.06221     -0.52974463      78
       31.621609      -119.06820     -0.50552464      79
       31.599292      -119.07419     -0.48651648      80
       31.577831      -119.07995     -0.50147676      81
       31.555513      -119.08594     -0.52826118      82
       31.533192      -119.09192     -0.51576185      83
       31.511734      -119.09767     -0.52349520      84
       31.496283      -119.10180     -0.54821014      85
       31.485126      -119.10479     -0.53561354      86
       31.467101      -119.10961     -0.51763630      87
       31.444782      -119.11559     -0.50464582      88
       31.423325      -119.12134     -0.52040005      89
       31.401008      -119.12732     -0.50611830      90
       31.378687      -119.13329     -0.50927973      91
       31.357229      -119.13903     -0.50869465      92
       31.334904      -119.14499     -0.52477694      93
       31.312581      -119.15095     -0.49660540      94
       31.290260      -119.15691     -0.49087572      95
       31.268798      -119.16264     -0.49338150      96
       31.246480      -119.16860     -0.51494551      97
       31.224158      -119.17456     -0.50574303      98
       31.201835      -119.18052     -0.47401714      99
       31.180372      -119.18624     -0.49866104     100
       31.158053      -119.19219     -0.49403000     101
       31.135734      -119.19813     -0.48797321     102
       31.113415      -119.20408     -0.48128796     103
       31.091952      -119.20980     -0.49465942     104
       31.077357      -119.21369     -0.48026133     105
       31.066196      -119.21666     -0.50236607     106
       31.047307      -119.22169     -0.50501442     107
       31.024986      -119.22762     -0.50245094     108
       31.002662      -119.23355     -0.50908327     109
       30.981197      -119.23926     -0.47369099     110
       30.958872      -119.24519     -0.48401165     111
       30.936547      -119.25112     -0.48962021     112
       30.914222      -119.25705     -0.49419403     113
       30.891898      -119.26297     -0.50655222     114
       30.870433      -119.26867     -0.46397161     115
       30.851539      -119.27368     -0.46082830     116
